/**
 * Weather Prediction Model - ESP32 Deployment
 * 
 * Auto-generated by micromlgen from scikit-learn RandomForest
 * 
 * Model Details:
 *   - Algorithm: RandomForestClassifier
 *   - Trees: 250
 *   - Features: 4 (temperature, humidity, pressure, lux)
 *   - Classes: 5 (Cloudy, Foggy, Rainy, Stormy, Sunny)
 *   - Training Accuracy: 100.00%
 *   - Test Accuracy: 100.00%
 *   - Training Samples: 380,000 (SMOTE-balanced)
 *   - Generation Date: 2025-10-14 15:33:18
 * 
 * Feature Input Requirements:
 *   - Input features MUST be scaled to [0, 1] range using MinMaxScaler
 *   - Use scaling_params.json for min/max values
 *   - Feature order: [temperature, humidity, pressure, lux]
 * 
 * Class Mapping:
 *   - 0: Cloudy
 *   - 1: Foggy
 *   - 2: Rainy
 *   - 3: Stormy
 *   - 4: Sunny
 * 
 * Usage Example:
 *   Eloquent::ML::Port::RandomForest classifier;
 *   float features[4] = {scaled_temp, scaled_humid, scaled_press, scaled_lux};
 *   int prediction = classifier.predict(features);
 *   // prediction will be 0, 1, 2, 3, or 4
 * 
 * CRITICAL: Always scale input features before calling predict()!
 * 
 * Hardware Target: ESP32-S3 (2.5MB sketch size limit)
 * Optimized: 250 trees for ESP32-S3 flash constraints
 * 
 * @author Weather Prediction System
 * @version 1.0
 * @date 2025-10-14
 */

#ifndef WEATHER_MODEL_H
#define WEATHER_MODEL_H

#pragma once
#include <cstdarg>
namespace Eloquent {
    namespace ML {
        namespace Port {
            class RandomForest {
                public:
                    /**
                    * Predict class for features vector
                    */
                    int predict(float *x) {
                        uint8_t votes[5] = { 0 };
                        // tree #1
                        if (x[3] <= 0.2060023993253708) {
                            if (x[3] <= 0.0006623062654398382) {
                                if (x[2] <= 0.4171789437532425) {
                                    if (x[0] <= 0.29545454680919647) {
                                        if (x[1] <= 0.6286231875419617) {
                                            if (x[2] <= 0.21462219953536987) {
                                                votes[3] += 1;
                                            }

                                            else {
                                                if (x[0] <= 0.25) {
                                                    votes[0] += 1;
                                                }

                                                else {
                                                    if (x[1] <= 0.42028985917568207) {
                                                        votes[0] += 1;
                                                    }

                                                    else {
                                                        votes[2] += 1;
                                                    }
                                                }
                                            }
                                        }

                                        else {
                                            votes[1] += 1;
                                        }
                                    }

                                    else {
                                        if (x[2] <= 0.218489870429039) {
                                            votes[3] += 1;
                                        }

                                        else {
                                            if (x[2] <= 0.2874596565961838) {
                                                if (x[0] <= 0.3000711351633072) {
                                                    if (x[1] <= 0.5978260785341263) {
                                                        votes[0] += 1;
                                                    }

                                                    else {
                                                        votes[1] += 1;
                                                    }
                                                }

                                                else {
                                                    if (x[0] <= 0.3136363625526428) {
                                                        if (x[1] <= 0.5983626991510391) {
                                                            votes[0] += 1;
                                                        }

                                                        else {
                                                            votes[1] += 1;
                                                        }
                                                    }

                                                    else {
                                                        if (x[1] <= 0.8593457043170929) {
                                                            votes[1] += 1;
                                                        }

                                                        else {
                                                            votes[1] += 1;
                                                        }
                                                    }
                                                }
                                            }

                                            else {
                                                if (x[1] <= 0.20108695328235626) {
                                                    votes[0] += 1;
                                                }

                                                else {
                                                    votes[0] += 1;
                                                }
                                            }
                                        }
                                    }
                                }

                                else {
                                    if (x[0] <= 0.36818182468414307) {
                                        if (x[0] <= 0.24838952720165253) {
                                            if (x[2] <= 0.6717033386230469) {
                                                votes[0] += 1;
                                            }

                                            else {
                                                votes[0] += 1;
                                            }
                                        }

                                        else {
                                            if (x[2] <= 0.4597041457891464) {
                                                if (x[2] <= 0.45915116369724274) {
                                                    votes[0] += 1;
                                                }

                                                else {
                                                    if (x[2] <= 0.45926810801029205) {
                                                        votes[0] += 1;
                                                    }

                                                    else {
                                                        votes[0] += 1;
                                                    }
                                                }
                                            }

                                            else {
                                                if (x[1] <= 0.6123188436031342) {
                                                    votes[0] += 1;
                                                }

                                                else {
                                                    votes[1] += 1;
                                                }
                                            }
                                        }
                                    }

                                    else {
                                        if (x[1] <= 0.6793478429317474) {
                                            if (x[2] <= 0.4199937731027603) {
                                                votes[0] += 1;
                                            }

                                            else {
                                                votes[0] += 1;
                                            }
                                        }

                                        else {
                                            votes[1] += 1;
                                        }
                                    }
                                }
                            }

                            else {
                                if (x[2] <= 0.21459686756134033) {
                                    votes[3] += 1;
                                }

                                else {
                                    if (x[2] <= 0.7033261060714722) {
                                        if (x[1] <= 0.6793478429317474) {
                                            if (x[0] <= 0.3499999940395355) {
                                                if (x[2] <= 0.2158340886235237) {
                                                    votes[0] += 1;
                                                }

                                                else {
                                                    votes[0] += 1;
                                                }
                                            }

                                            else {
                                                if (x[0] <= 0.36360500752925873) {
                                                    if (x[3] <= 0.02076477650552988) {
                                                        if (x[2] <= 0.23771901428699493) {
                                                            votes[2] += 1;
                                                        }

                                                        else {
                                                            votes[0] += 1;
                                                        }
                                                    }

                                                    else {
                                                        if (x[3] <= 0.024063410237431526) {
                                                            votes[0] += 1;
                                                        }

                                                        else {
                                                            votes[0] += 1;
                                                        }
                                                    }
                                                }

                                                else {
                                                    if (x[2] <= 0.2149805724620819) {
                                                        votes[2] += 1;
                                                    }

                                                    else {
                                                        if (x[3] <= 0.0009887988853733987) {
                                                            votes[0] += 1;
                                                        }

                                                        else {
                                                            votes[0] += 1;
                                                        }
                                                    }
                                                }
                                            }
                                        }

                                        else {
                                            votes[1] += 1;
                                        }
                                    }

                                    else {
                                        if (x[1] <= 0.6793478429317474) {
                                            if (x[3] <= 0.0009887988853733987) {
                                                votes[0] += 1;
                                            }

                                            else {
                                                votes[0] += 1;
                                            }
                                        }

                                        else {
                                            votes[1] += 1;
                                        }
                                    }
                                }
                            }
                        }

                        else {
                            if (x[1] <= 0.06866752728819847) {
                                votes[4] += 1;
                            }

                            else {
                                votes[4] += 1;
                            }
                        }

                        // tree #2
                        if (x[3] <= 0.2060023993253708) {
                            if (x[2] <= 0.21459686756134033) {
                                votes[3] += 1;
                            }

                            else {
                                if (x[2] <= 0.41718563437461853) {
                                    if (x[2] <= 0.3010534942150116) {
                                        if (x[0] <= 0.28018756210803986) {
                                            if (x[0] <= 0.23695286363363266) {
                                                if (x[2] <= 0.2673248201608658) {
                                                    votes[0] += 1;
                                                }

                                                else {
                                                    votes[0] += 1;
                                                }
                                            }

                                            else {
                                                if (x[3] <= 1.1946336599066854e-05) {
                                                    if (x[1] <= 0.6068840622901917) {
                                                        if (x[1] <= 0.42391304671764374) {
                                                            votes[0] += 1;
                                                        }

                                                        else {
                                                            votes[2] += 1;
                                                        }
                                                    }

                                                    else {
                                                        if (x[1] <= 0.7300724685192108) {
                                                            votes[1] += 1;
                                                        }

                                                        else {
                                                            votes[1] += 1;
                                                        }
                                                    }
                                                }

                                                else {
                                                    votes[1] += 1;
                                                }
                                            }
                                        }

                                        else {
                                            if (x[1] <= 0.6811594367027283) {
                                                if (x[1] <= 0.45652173459529877) {
                                                    votes[0] += 1;
                                                }

                                                else {
                                                    if (x[0] <= 0.2820894718170166) {
                                                        votes[2] += 1;
                                                    }

                                                    else {
                                                        votes[2] += 1;
                                                    }
                                                }
                                            }

                                            else {
                                                votes[1] += 1;
                                            }
                                        }
                                    }

                                    else {
                                        if (x[0] <= 0.2863636314868927) {
                                            if (x[1] <= 0.44021739065647125) {
                                                votes[0] += 1;
                                            }

                                            else {
                                                votes[2] += 1;
                                            }
                                        }

                                        else {
                                            votes[0] += 1;
                                        }
                                    }
                                }

                                else {
                                    if (x[1] <= 0.6793478429317474) {
                                        votes[0] += 1;
                                    }

                                    else {
                                        votes[1] += 1;
                                    }
                                }
                            }
                        }

                        else {
                            if (x[3] <= 0.20633627474308014) {
                                votes[4] += 1;
                            }

                            else {
                                votes[4] += 1;
                            }
                        }

                        // tree #3
                        if (x[2] <= 0.2145994007587433) {
                            if (x[3] <= 0.2060023993253708) {
                                if (x[3] <= 2.614933328004554e-05) {
                                    votes[3] += 1;
                                }

                                else {
                                    votes[3] += 1;
                                }
                            }

                            else {
                                votes[4] += 1;
                            }
                        }

                        else {
                            if (x[3] <= 0.2060023993253708) {
                                if (x[2] <= 0.41718629002571106) {
                                    if (x[1] <= 0.6811594367027283) {
                                        if (x[0] <= 0.29545454680919647) {
                                            if (x[1] <= 0.4420289844274521) {
                                                votes[0] += 1;
                                            }

                                            else {
                                                if (x[2] <= 0.21484996378421783) {
                                                    votes[2] += 1;
                                                }

                                                else {
                                                    votes[2] += 1;
                                                }
                                            }
                                        }

                                        else {
                                            if (x[1] <= 0.489130437374115) {
                                                votes[0] += 1;
                                            }

                                            else {
                                                if (x[1] <= 0.5407558679580688) {
                                                    votes[2] += 1;
                                                }

                                                else {
                                                    votes[2] += 1;
                                                }
                                            }
                                        }
                                    }

                                    else {
                                        votes[1] += 1;
                                    }
                                }

                                else {
                                    if (x[0] <= 0.24620728939771652) {
                                        if (x[3] <= 0.09889081120491028) {
                                            if (x[3] <= 0.09854765236377716) {
                                                if (x[2] <= 0.6496087610721588) {
                                                    if (x[1] <= 0.4800724685192108) {
                                                        votes[0] += 1;
                                                    }

                                                    else {
                                                        votes[0] += 1;
                                                    }
                                                }

                                                else {
                                                    if (x[1] <= 0.5561594069004059) {
                                                        votes[0] += 1;
                                                    }

                                                    else {
                                                        if (x[2] <= 0.7638537883758545) {
                                                            votes[0] += 1;
                                                        }

                                                        else {
                                                            if (x[2] <= 0.7707477509975433) {
                                                                votes[0] += 1;
                                                            }

                                                            else {
                                                                votes[0] += 1;
                                                            }
                                                        }
                                                    }
                                                }
                                            }

                                            else {
                                                votes[0] += 1;
                                            }
                                        }

                                        else {
                                            if (x[3] <= 0.10939700528979301) {
                                                if (x[1] <= 0.6757246553897858) {
                                                    votes[0] += 1;
                                                }

                                                else {
                                                    votes[1] += 1;
                                                }
                                            }

                                            else {
                                                if (x[1] <= 0.6757246553897858) {
                                                    if (x[0] <= 0.07727272436022758) {
                                                        votes[0] += 1;
                                                    }

                                                    else {
                                                        votes[0] += 1;
                                                    }
                                                }

                                                else {
                                                    votes[1] += 1;
                                                }
                                            }
                                        }
                                    }

                                    else {
                                        if (x[3] <= 0.021077835001051426) {
                                            if (x[2] <= 0.7026527225971222) {
                                                if (x[1] <= 0.6793478429317474) {
                                                    votes[0] += 1;
                                                }

                                                else {
                                                    votes[1] += 1;
                                                }
                                            }

                                            else {
                                                votes[0] += 1;
                                            }
                                        }

                                        else {
                                            if (x[1] <= 0.6793478429317474) {
                                                votes[0] += 1;
                                            }

                                            else {
                                                if (x[3] <= 0.07001223042607307) {
                                                    votes[1] += 1;
                                                }

                                                else {
                                                    votes[1] += 1;
                                                }
                                            }
                                        }
                                    }
                                }
                            }

                            else {
                                if (x[0] <= 0.07727272436022758) {
                                    votes[4] += 1;
                                }

                                else {
                                    votes[4] += 1;
                                }
                            }
                        }

                        // tree #4
                        if (x[1] <= 0.6807346045970917) {
                            if (x[1] <= 0.47457897663116455) {
                                if (x[2] <= 0.21459686756134033) {
                                    if (x[3] <= 0.2060023993253708) {
                                        votes[3] += 1;
                                    }

                                    else {
                                        votes[4] += 1;
                                    }
                                }

                                else {
                                    if (x[0] <= 0.3727419078350067) {
                                        if (x[1] <= 0.1721014529466629) {
                                            if (x[3] <= 0.20534583926200867) {
                                                if (x[2] <= 0.32058843970298767) {
                                                    votes[0] += 1;
                                                }

                                                else {
                                                    votes[0] += 1;
                                                }
                                            }

                                            else {
                                                votes[4] += 1;
                                            }
                                        }

                                        else {
                                            if (x[3] <= 0.2060023993253708) {
                                                if (x[3] <= 0.00033223643549717963) {
                                                    votes[0] += 1;
                                                }

                                                else {
                                                    votes[0] += 1;
                                                }
                                            }

                                            else {
                                                votes[4] += 1;
                                            }
                                        }
                                    }

                                    else {
                                        if (x[3] <= 0.2060023993253708) {
                                            votes[0] += 1;
                                        }

                                        else {
                                            votes[4] += 1;
                                        }
                                    }
                                }
                            }

                            else {
                                if (x[0] <= 0.2930215001106262) {
                                    if (x[3] <= 0.00033223643549717963) {
                                        if (x[2] <= 0.41719768941402435) {
                                            if (x[2] <= 0.21456043422222137) {
                                                votes[3] += 1;
                                            }

                                            else {
                                                votes[2] += 1;
                                            }
                                        }

                                        else {
                                            votes[0] += 1;
                                        }
                                    }

                                    else {
                                        if (x[2] <= 0.29880862683057785) {
                                            votes[3] += 1;
                                        }

                                        else {
                                            if (x[0] <= 0.1409090906381607) {
                                                votes[0] += 1;
                                            }

                                            else {
                                                votes[0] += 1;
                                            }
                                        }
                                    }
                                }

                                else {
                                    if (x[3] <= 0.2060023993253708) {
                                        if (x[0] <= 0.3863636404275894) {
                                            if (x[1] <= 0.5478314161300659) {
                                                if (x[3] <= 0.09525693207979202) {
                                                    if (x[2] <= 0.21482998877763748) {
                                                        votes[3] += 1;
                                                    }

                                                    else {
                                                        if (x[1] <= 0.529122918844223) {
                                                            if (x[2] <= 0.46912024915218353) {
                                                                votes[2] += 1;
                                                            }

                                                            else {
                                                                if (x[0] <= 0.30454546213150024) {
                                                                    votes[0] += 1;
                                                                }

                                                                else {
                                                                    votes[0] += 1;
                                                                }
                                                            }
                                                        }

                                                        else {
                                                            if (x[3] <= 0.021421339362859726) {
                                                                if (x[1] <= 0.5359475314617157) {
                                                                    if (x[0] <= 0.3499999940395355) {
                                                                        votes[0] += 1;
                                                                    }

                                                                    else {
                                                                        votes[2] += 1;
                                                                    }
                                                                }

                                                                else {
                                                                    if (x[3] <= 0.017466142773628235) {
                                                                        votes[0] += 1;
                                                                    }

                                                                    else {
                                                                        votes[0] += 1;
                                                                    }
                                                                }
                                                            }

                                                            else {
                                                                votes[0] += 1;
                                                            }
                                                        }
                                                    }
                                                }

                                                else {
                                                    if (x[1] <= 0.5206910073757172) {
                                                        if (x[2] <= 0.3017604649066925) {
                                                            votes[3] += 1;
                                                        }

                                                        else {
                                                            votes[0] += 1;
                                                        }
                                                    }

                                                    else {
                                                        if (x[0] <= 0.34090909361839294) {
                                                            votes[0] += 1;
                                                        }

                                                        else {
                                                            if (x[1] <= 0.5235507190227509) {
                                                                if (x[2] <= 0.7900417447090149) {
                                                                    votes[0] += 1;
                                                                }

                                                                else {
                                                                    votes[0] += 1;
                                                                }
                                                            }

                                                            else {
                                                                if (x[3] <= 0.11865586787462234) {
                                                                    if (x[2] <= 0.5180821120738983) {
                                                                        votes[0] += 1;
                                                                    }

                                                                    else {
                                                                        votes[0] += 1;
                                                                    }
                                                                }

                                                                else {
                                                                    if (x[2] <= 0.5142805576324463) {
                                                                        votes[0] += 1;
                                                                    }

                                                                    else {
                                                                        votes[0] += 1;
                                                                    }
                                                                }
                                                            }
                                                        }
                                                    }
                                                }
                                            }

                                            else {
                                                if (x[3] <= 0.12920041382312775) {
                                                    if (x[0] <= 0.36818182468414307) {
                                                        if (x[3] <= 0.02076477650552988) {
                                                            if (x[2] <= 0.2146424651145935) {
                                                                if (x[0] <= 0.30454546213150024) {
                                                                    votes[3] += 1;
                                                                }

                                                                else {
                                                                    votes[3] += 1;
                                                                }
                                                            }

                                                            else {
                                                                if (x[3] <= 0.01846833247691393) {
                                                                    if (x[2] <= 0.44850292801856995) {
                                                                        votes[0] += 1;
                                                                    }

                                                                    else {
                                                                        votes[0] += 1;
                                                                    }
                                                                }

                                                                else {
                                                                    if (x[2] <= 0.21627961844205856) {
                                                                        votes[2] += 1;
                                                                    }

                                                                    else {
                                                                        votes[0] += 1;
                                                                    }
                                                                }
                                                            }
                                                        }

                                                        else {
                                                            if (x[2] <= 0.35681597143411636) {
                                                                votes[3] += 1;
                                                            }

                                                            else {
                                                                if (x[1] <= 0.5525362193584442) {
                                                                    votes[0] += 1;
                                                                }

                                                                else {
                                                                    votes[0] += 1;
                                                                }
                                                            }
                                                        }
                                                    }

                                                    else {
                                                        if (x[2] <= 0.2921084091067314) {
                                                            votes[3] += 1;
                                                        }

                                                        else {
                                                            votes[0] += 1;
                                                        }
                                                    }
                                                }

                                                else {
                                                    if (x[2] <= 0.3803800418972969) {
                                                        votes[3] += 1;
                                                    }

                                                    else {
                                                        votes[0] += 1;
                                                    }
                                                }
                                            }
                                        }

                                        else {
                                            if (x[1] <= 0.48731884360313416) {
                                                if (x[0] <= 0.3954545557498932) {
                                                    if (x[3] <= 0.05174186918884516) {
                                                        votes[0] += 1;
                                                    }

                                                    else {
                                                        votes[3] += 1;
                                                    }
                                                }

                                                else {
                                                    votes[0] += 1;
                                                }
                                            }

                                            else {
                                                if (x[2] <= 0.3093952462077141) {
                                                    votes[3] += 1;
                                                }

                                                else {
                                                    votes[0] += 1;
                                                }
                                            }
                                        }
                                    }

                                    else {
                                        if (x[0] <= 0.3136363625526428) {
                                            votes[4] += 1;
                                        }

                                        else {
                                            votes[4] += 1;
                                        }
                                    }
                                }
                            }
                        }

                        else {
                            if (x[2] <= 0.2145994007587433) {
                                votes[3] += 1;
                            }

                            else {
                                if (x[1] <= 0.6848626434803009) {
                                    if (x[3] <= 0.16234271228313446) {
                                        votes[1] += 1;
                                    }

                                    else {
                                        votes[4] += 1;
                                    }
                                }

                                else {
                                    votes[1] += 1;
                                }
                            }
                        }

                        // tree #5
                        if (x[3] <= 0.2060023993253708) {
                            if (x[2] <= 0.2145994007587433) {
                                votes[3] += 1;
                            }

                            else {
                                if (x[1] <= 0.6793478429317474) {
                                    if (x[2] <= 0.41718629002571106) {
                                        if (x[0] <= 0.29545454680919647) {
                                            if (x[1] <= 0.44021739065647125) {
                                                votes[0] += 1;
                                            }

                                            else {
                                                if (x[0] <= 0.2590909004211426) {
                                                    votes[2] += 1;
                                                }

                                                else {
                                                    votes[2] += 1;
                                                }
                                            }
                                        }

                                        else {
                                            if (x[2] <= 0.21640288084745407) {
                                                if (x[1] <= 0.47482912242412567) {
                                                    votes[0] += 1;
                                                }

                                                else {
                                                    votes[2] += 1;
                                                }
                                            }

                                            else {
                                                if (x[0] <= 0.30454546213150024) {
                                                    votes[0] += 1;
                                                }

                                                else {
                                                    votes[0] += 1;
                                                }
                                            }
                                        }
                                    }

                                    else {
                                        if (x[2] <= 0.4176117777824402) {
                                            votes[0] += 1;
                                        }

                                        else {
                                            votes[0] += 1;
                                        }
                                    }
                                }

                                else {
                                    if (x[3] <= 7.675828328501666e-08) {
                                        votes[1] += 1;
                                    }

                                    else {
                                        votes[1] += 1;
                                    }
                                }
                            }
                        }

                        else {
                            if (x[2] <= 0.09196865558624268) {
                                votes[4] += 1;
                            }

                            else {
                                votes[4] += 1;
                            }
                        }

                        // tree #6
                        if (x[3] <= 0.2060023993253708) {
                            if (x[2] <= 0.2145994007587433) {
                                votes[3] += 1;
                            }

                            else {
                                if (x[1] <= 0.6793478429317474) {
                                    if (x[3] <= 0.00033223643549717963) {
                                        if (x[2] <= 0.4171796441078186) {
                                            if (x[0] <= 0.29545454680919647) {
                                                if (x[1] <= 0.42028985917568207) {
                                                    votes[0] += 1;
                                                }

                                                else {
                                                    if (x[2] <= 0.21485639363527298) {
                                                        votes[2] += 1;
                                                    }

                                                    else {
                                                        votes[2] += 1;
                                                    }
                                                }
                                            }

                                            else {
                                                votes[0] += 1;
                                            }
                                        }

                                        else {
                                            votes[0] += 1;
                                        }
                                    }

                                    else {
                                        if (x[2] <= 0.21639908105134964) {
                                            if (x[3] <= 0.01288010342977941) {
                                                votes[0] += 1;
                                            }

                                            else {
                                                if (x[0] <= 0.34090907871723175) {
                                                    votes[0] += 1;
                                                }

                                                else {
                                                    votes[2] += 1;
                                                }
                                            }
                                        }

                                        else {
                                            votes[0] += 1;
                                        }
                                    }
                                }

                                else {
                                    if (x[0] <= 0.1358843520283699) {
                                        votes[1] += 1;
                                    }

                                    else {
                                        votes[1] += 1;
                                    }
                                }
                            }
                        }

                        else {
                            if (x[0] <= 0.07727272436022758) {
                                votes[4] += 1;
                            }

                            else {
                                votes[4] += 1;
                            }
                        }

                        // tree #7
                        if (x[1] <= 0.6807346045970917) {
                            if (x[2] <= 0.21459686756134033) {
                                if (x[3] <= 0.2060023993253708) {
                                    if (x[2] <= 0.0003317816444905475) {
                                        votes[3] += 1;
                                    }

                                    else {
                                        votes[3] += 1;
                                    }
                                }

                                else {
                                    votes[4] += 1;
                                }
                            }

                            else {
                                if (x[3] <= 0.2060023993253708) {
                                    if (x[1] <= 0.4728260934352875) {
                                        votes[0] += 1;
                                    }

                                    else {
                                        if (x[2] <= 0.41747501492500305) {
                                            if (x[3] <= 0.009257144294679165) {
                                                votes[2] += 1;
                                            }

                                            else {
                                                votes[2] += 1;
                                            }
                                        }

                                        else {
                                            votes[0] += 1;
                                        }
                                    }
                                }

                                else {
                                    if (x[1] <= 0.07117318361997604) {
                                        votes[4] += 1;
                                    }

                                    else {
                                        votes[4] += 1;
                                    }
                                }
                            }
                        }

                        else {
                            if (x[2] <= 0.2145981341600418) {
                                votes[3] += 1;
                            }

                            else {
                                if (x[3] <= 0.16441094875335693) {
                                    votes[1] += 1;
                                }

                                else {
                                    votes[4] += 1;
                                }
                            }
                        }

                        // tree #8
                        if (x[1] <= 0.6807346045970917) {
                            if (x[3] <= 0.2060023993253708) {
                                if (x[1] <= 0.4744171053171158) {
                                    if (x[2] <= 0.21459686756134033) {
                                        votes[3] += 1;
                                    }

                                    else {
                                        votes[0] += 1;
                                    }
                                }

                                else {
                                    if (x[2] <= 0.4171970337629318) {
                                        if (x[2] <= 0.2146301344037056) {
                                            votes[3] += 1;
                                        }

                                        else {
                                            votes[2] += 1;
                                        }
                                    }

                                    else {
                                        votes[0] += 1;
                                    }
                                }
                            }

                            else {
                                if (x[1] <= 0.06903330236673355) {
                                    votes[4] += 1;
                                }

                                else {
                                    votes[4] += 1;
                                }
                            }
                        }

                        else {
                            if (x[2] <= 0.2145981341600418) {
                                votes[3] += 1;
                            }

                            else {
                                if (x[3] <= 0.16102167963981628) {
                                    votes[1] += 1;
                                }

                                else {
                                    votes[4] += 1;
                                }
                            }
                        }

                        // tree #9
                        if (x[1] <= 0.6807346045970917) {
                            if (x[2] <= 0.21459686756134033) {
                                if (x[3] <= 0.2060023993253708) {
                                    votes[3] += 1;
                                }

                                else {
                                    votes[4] += 1;
                                }
                            }

                            else {
                                if (x[2] <= 0.41718629002571106) {
                                    if (x[1] <= 0.46557971835136414) {
                                        if (x[3] <= 0.2060023993253708) {
                                            votes[0] += 1;
                                        }

                                        else {
                                            if (x[0] <= 0.36403538286685944) {
                                                votes[4] += 1;
                                            }

                                            else {
                                                votes[4] += 1;
                                            }
                                        }
                                    }

                                    else {
                                        votes[2] += 1;
                                    }
                                }

                                else {
                                    if (x[3] <= 0.2060023993253708) {
                                        votes[0] += 1;
                                    }

                                    else {
                                        votes[4] += 1;
                                    }
                                }
                            }
                        }

                        else {
                            if (x[3] <= 0.021082589402794838) {
                                if (x[3] <= 0.020440340973436832) {
                                    if (x[2] <= 0.21459560841321945) {
                                        votes[3] += 1;
                                    }

                                    else {
                                        votes[1] += 1;
                                    }
                                }

                                else {
                                    if (x[2] <= 0.2146008089184761) {
                                        votes[3] += 1;
                                    }

                                    else {
                                        votes[1] += 1;
                                    }
                                }
                            }

                            else {
                                if (x[0] <= 0.29545454680919647) {
                                    if (x[2] <= 0.21450189501047134) {
                                        votes[3] += 1;
                                    }

                                    else {
                                        votes[1] += 1;
                                    }
                                }

                                else {
                                    if (x[0] <= 0.3909090906381607) {
                                        if (x[2] <= 0.21209806948900223) {
                                            votes[3] += 1;
                                        }

                                        else {
                                            votes[3] += 1;
                                        }
                                    }

                                    else {
                                        votes[4] += 1;
                                    }
                                }
                            }
                        }

                        // tree #10
                        if (x[3] <= 0.2060023993253708) {
                            if (x[1] <= 0.6793478429317474) {
                                if (x[2] <= 0.21459686756134033) {
                                    votes[3] += 1;
                                }

                                else {
                                    if (x[2] <= 0.41718249022960663) {
                                        if (x[1] <= 0.4637681245803833) {
                                            votes[0] += 1;
                                        }

                                        else {
                                            if (x[2] <= 0.21473631262779236) {
                                                votes[2] += 1;
                                            }

                                            else {
                                                votes[2] += 1;
                                            }
                                        }
                                    }

                                    else {
                                        votes[0] += 1;
                                    }
                                }
                            }

                            else {
                                if (x[2] <= 0.2145981341600418) {
                                    votes[3] += 1;
                                }

                                else {
                                    votes[1] += 1;
                                }
                            }
                        }

                        else {
                            if (x[1] <= 0.06847648322582245) {
                                votes[4] += 1;
                            }

                            else {
                                votes[4] += 1;
                            }
                        }

                        // tree #11
                        if (x[2] <= 0.2145994007587433) {
                            if (x[3] <= 0.2060023993253708) {
                                if (x[3] <= 1.1164043826283887e-05) {
                                    votes[3] += 1;
                                }

                                else {
                                    votes[3] += 1;
                                }
                            }

                            else {
                                votes[4] += 1;
                            }
                        }

                        else {
                            if (x[1] <= 0.6807346045970917) {
                                if (x[2] <= 0.41718249022960663) {
                                    if (x[0] <= 0.29545454680919647) {
                                        if (x[1] <= 0.4420289844274521) {
                                            votes[0] += 1;
                                        }

                                        else {
                                            votes[2] += 1;
                                        }
                                    }

                                    else {
                                        if (x[3] <= 0.2060023993253708) {
                                            if (x[0] <= 0.36359071731567383) {
                                                if (x[1] <= 0.4656803458929062) {
                                                    if (x[0] <= 0.30454546213150024) {
                                                        votes[0] += 1;
                                                    }

                                                    else {
                                                        votes[0] += 1;
                                                    }
                                                }

                                                else {
                                                    votes[2] += 1;
                                                }
                                            }

                                            else {
                                                if (x[2] <= 0.21502236276865005) {
                                                    votes[2] += 1;
                                                }

                                                else {
                                                    if (x[3] <= 0.00033223643549717963) {
                                                        votes[0] += 1;
                                                    }

                                                    else {
                                                        votes[0] += 1;
                                                    }
                                                }
                                            }
                                        }

                                        else {
                                            if (x[3] <= 0.20635736733675003) {
                                                votes[4] += 1;
                                            }

                                            else {
                                                votes[4] += 1;
                                            }
                                        }
                                    }
                                }

                                else {
                                    if (x[0] <= 0.3727419078350067) {
                                        if (x[2] <= 0.6379789710044861) {
                                            if (x[0] <= 0.28213438391685486) {
                                                if (x[3] <= 0.19677098095417023) {
                                                    votes[0] += 1;
                                                }

                                                else {
                                                    votes[4] += 1;
                                                }
                                            }

                                            else {
                                                if (x[3] <= 0.2060023993253708) {
                                                    votes[0] += 1;
                                                }

                                                else {
                                                    if (x[0] <= 0.29237766563892365) {
                                                        votes[4] += 1;
                                                    }

                                                    else {
                                                        votes[4] += 1;
                                                    }
                                                }
                                            }
                                        }

                                        else {
                                            if (x[3] <= 0.2060023993253708) {
                                                if (x[2] <= 0.6381237506866455) {
                                                    votes[0] += 1;
                                                }

                                                else {
                                                    votes[0] += 1;
                                                }
                                            }

                                            else {
                                                votes[4] += 1;
                                            }
                                        }
                                    }

                                    else {
                                        if (x[3] <= 0.2060023993253708) {
                                            votes[0] += 1;
                                        }

                                        else {
                                            votes[4] += 1;
                                        }
                                    }
                                }
                            }

                            else {
                                if (x[3] <= 0.16157109290361404) {
                                    if (x[1] <= 0.6811874806880951) {
                                        votes[1] += 1;
                                    }

                                    else {
                                        votes[1] += 1;
                                    }
                                }

                                else {
                                    votes[4] += 1;
                                }
                            }
                        }

                        // tree #12
                        if (x[3] <= 0.2060023993253708) {
                            if (x[3] <= 0.0006623062654398382) {
                                if (x[0] <= 0.29545454680919647) {
                                    if (x[0] <= 0.25389616191387177) {
                                        if (x[1] <= 0.6014492809772491) {
                                            if (x[1] <= 0.3079710155725479) {
                                                votes[0] += 1;
                                            }

                                            else {
                                                if (x[2] <= 0.21426255255937576) {
                                                    votes[3] += 1;
                                                }

                                                else {
                                                    votes[0] += 1;
                                                }
                                            }
                                        }

                                        else {
                                            votes[1] += 1;
                                        }
                                    }

                                    else {
                                        if (x[1] <= 0.6123188436031342) {
                                            if (x[0] <= 0.2590909004211426) {
                                                if (x[1] <= 0.44021739065647125) {
                                                    if (x[2] <= 0.21467285603284836) {
                                                        votes[3] += 1;
                                                    }

                                                    else {
                                                        if (x[1] <= 0.15760869532823563) {
                                                            votes[0] += 1;
                                                        }

                                                        else {
                                                            votes[0] += 1;
                                                        }
                                                    }
                                                }

                                                else {
                                                    if (x[2] <= 0.41719768941402435) {
                                                        votes[2] += 1;
                                                    }

                                                    else {
                                                        if (x[2] <= 0.42135001718997955) {
                                                            votes[0] += 1;
                                                        }

                                                        else {
                                                            votes[0] += 1;
                                                        }
                                                    }
                                                }
                                            }

                                            else {
                                                if (x[0] <= 0.29062633216381073) {
                                                    if (x[2] <= 0.41699905693531036) {
                                                        if (x[2] <= 0.21975848078727722) {
                                                            if (x[2] <= 0.21462726593017578) {
                                                                if (x[2] <= 0.19125314056873322) {
                                                                    votes[3] += 1;
                                                                }

                                                                else {
                                                                    votes[3] += 1;
                                                                }
                                                            }

                                                            else {
                                                                votes[0] += 1;
                                                            }
                                                        }

                                                        else {
                                                            if (x[1] <= 0.42028985917568207) {
                                                                votes[0] += 1;
                                                            }

                                                            else {
                                                                votes[2] += 1;
                                                            }
                                                        }
                                                    }

                                                    else {
                                                        if (x[0] <= 0.26818181574344635) {
                                                            votes[0] += 1;
                                                        }

                                                        else {
                                                            votes[0] += 1;
                                                        }
                                                    }
                                                }

                                                else {
                                                    if (x[1] <= 0.4365942031145096) {
                                                        if (x[2] <= 0.21455887705087662) {
                                                            votes[3] += 1;
                                                        }

                                                        else {
                                                            votes[0] += 1;
                                                        }
                                                    }

                                                    else {
                                                        if (x[1] <= 0.5126811563968658) {
                                                            if (x[1] <= 0.5108638107776642) {
                                                                if (x[1] <= 0.5072214603424072) {
                                                                    if (x[1] <= 0.5003857612609863) {
                                                                        votes[2] += 1;
                                                                    }

                                                                    else {
                                                                        votes[2] += 1;
                                                                    }
                                                                }

                                                                else {
                                                                    if (x[2] <= 0.21510110795497894) {
                                                                        votes[3] += 1;
                                                                    }

                                                                    else {
                                                                        votes[2] += 1;
                                                                    }
                                                                }
                                                            }

                                                            else {
                                                                if (x[2] <= 0.21234101802110672) {
                                                                    votes[3] += 1;
                                                                }

                                                                else {
                                                                    votes[2] += 1;
                                                                }
                                                            }
                                                        }

                                                        else {
                                                            votes[3] += 1;
                                                        }
                                                    }
                                                }
                                            }
                                        }

                                        else {
                                            votes[1] += 1;
                                        }
                                    }
                                }

                                else {
                                    if (x[1] <= 0.6793478429317474) {
                                        if (x[2] <= 0.22756168246269226) {
                                            votes[3] += 1;
                                        }

                                        else {
                                            if (x[2] <= 0.2629052847623825) {
                                                votes[0] += 1;
                                            }

                                            else {
                                                votes[0] += 1;
                                            }
                                        }
                                    }

                                    else {
                                        votes[1] += 1;
                                    }
                                }
                            }

                            else {
                                if (x[2] <= 0.21459686756134033) {
                                    votes[3] += 1;
                                }

                                else {
                                    if (x[2] <= 0.7033261060714722) {
                                        if (x[1] <= 0.6793478429317474) {
                                            if (x[2] <= 0.21641834825277328) {
                                                if (x[0] <= 0.37272727489471436) {
                                                    if (x[0] <= 0.34090907871723175) {
                                                        votes[0] += 1;
                                                    }

                                                    else {
                                                        votes[2] += 1;
                                                    }
                                                }

                                                else {
                                                    votes[0] += 1;
                                                }
                                            }

                                            else {
                                                if (x[0] <= 0.1045454554259777) {
                                                    votes[0] += 1;
                                                }

                                                else {
                                                    votes[0] += 1;
                                                }
                                            }
                                        }

                                        else {
                                            votes[1] += 1;
                                        }
                                    }

                                    else {
                                        if (x[1] <= 0.6793478429317474) {
                                            if (x[3] <= 0.0009887988853733987) {
                                                votes[0] += 1;
                                            }

                                            else {
                                                votes[0] += 1;
                                            }
                                        }

                                        else {
                                            votes[1] += 1;
                                        }
                                    }
                                }
                            }
                        }

                        else {
                            if (x[1] <= 0.07487184181809425) {
                                votes[4] += 1;
                            }

                            else {
                                votes[4] += 1;
                            }
                        }

                        // tree #13
                        if (x[2] <= 0.21459686756134033) {
                            if (x[1] <= 0.26425403356552124) {
                                if (x[0] <= 0.4656079560518265) {
                                    if (x[2] <= 0.1411873698234558) {
                                        votes[3] += 1;
                                    }

                                    else {
                                        votes[3] += 1;
                                    }
                                }

                                else {
                                    if (x[1] <= 0.25346097350120544) {
                                        if (x[3] <= 0.23697949945926666) {
                                            votes[4] += 1;
                                        }

                                        else {
                                            votes[4] += 1;
                                        }
                                    }

                                    else {
                                        if (x[3] <= 0.20610414445400238) {
                                            votes[3] += 1;
                                        }

                                        else {
                                            votes[4] += 1;
                                        }
                                    }
                                }
                            }

                            else {
                                if (x[2] <= 0.14741109311580658) {
                                    if (x[3] <= 0.2060023993253708) {
                                        votes[3] += 1;
                                    }

                                    else {
                                        votes[4] += 1;
                                    }
                                }

                                else {
                                    if (x[3] <= 0.20434913039207458) {
                                        if (x[1] <= 0.28442028164863586) {
                                            votes[3] += 1;
                                        }

                                        else {
                                            votes[3] += 1;
                                        }
                                    }

                                    else {
                                        votes[4] += 1;
                                    }
                                }
                            }
                        }

                        else {
                            if (x[1] <= 0.6806480884552002) {
                                if (x[3] <= 0.2060023993253708) {
                                    if (x[1] <= 0.4728260934352875) {
                                        if (x[2] <= 0.21484887599945068) {
                                            votes[0] += 1;
                                        }

                                        else {
                                            votes[0] += 1;
                                        }
                                    }

                                    else {
                                        if (x[2] <= 0.41719768941402435) {
                                            if (x[2] <= 0.2147468775510788) {
                                                votes[2] += 1;
                                            }

                                            else {
                                                votes[2] += 1;
                                            }
                                        }

                                        else {
                                            votes[0] += 1;
                                        }
                                    }
                                }

                                else {
                                    if (x[2] <= 0.2416188046336174) {
                                        votes[4] += 1;
                                    }

                                    else {
                                        votes[4] += 1;
                                    }
                                }
                            }

                            else {
                                if (x[2] <= 0.713389664888382) {
                                    votes[1] += 1;
                                }

                                else {
                                    if (x[3] <= 0.16261454671621323) {
                                        if (x[3] <= 0.13444197177886963) {
                                            votes[1] += 1;
                                        }

                                        else {
                                            votes[1] += 1;
                                        }
                                    }

                                    else {
                                        votes[4] += 1;
                                    }
                                }
                            }
                        }

                        // tree #14
                        if (x[3] <= 0.2060023993253708) {
                            if (x[1] <= 0.6793478429317474) {
                                if (x[2] <= 0.21459686756134033) {
                                    votes[3] += 1;
                                }

                                else {
                                    if (x[3] <= 0.00033223643549717963) {
                                        if (x[2] <= 0.41718249022960663) {
                                            if (x[0] <= 0.29545454680919647) {
                                                if (x[1] <= 0.42028985917568207) {
                                                    votes[0] += 1;
                                                }

                                                else {
                                                    if (x[2] <= 0.2148372083902359) {
                                                        votes[2] += 1;
                                                    }

                                                    else {
                                                        votes[2] += 1;
                                                    }
                                                }
                                            }

                                            else {
                                                votes[0] += 1;
                                            }
                                        }

                                        else {
                                            votes[0] += 1;
                                        }
                                    }

                                    else {
                                        if (x[1] <= 0.6539855301380157) {
                                            if (x[2] <= 0.216422937810421) {
                                                if (x[0] <= 0.34090907871723175) {
                                                    votes[0] += 1;
                                                }

                                                else {
                                                    if (x[0] <= 0.37272727489471436) {
                                                        votes[2] += 1;
                                                    }

                                                    else {
                                                        votes[0] += 1;
                                                    }
                                                }
                                            }

                                            else {
                                                votes[0] += 1;
                                            }
                                        }

                                        else {
                                            if (x[0] <= 0.3590909093618393) {
                                                if (x[0] <= 0.33636362850666046) {
                                                    votes[0] += 1;
                                                }

                                                else {
                                                    votes[2] += 1;
                                                }
                                            }

                                            else {
                                                votes[0] += 1;
                                            }
                                        }
                                    }
                                }
                            }

                            else {
                                if (x[3] <= 0.021082589402794838) {
                                    if (x[3] <= 0.020440340973436832) {
                                        if (x[2] <= 0.21456467360258102) {
                                            votes[3] += 1;
                                        }

                                        else {
                                            votes[1] += 1;
                                        }
                                    }

                                    else {
                                        if (x[2] <= 0.21460320055484772) {
                                            votes[3] += 1;
                                        }

                                        else {
                                            votes[1] += 1;
                                        }
                                    }
                                }

                                else {
                                    if (x[2] <= 0.2145371362566948) {
                                        votes[3] += 1;
                                    }

                                    else {
                                        votes[1] += 1;
                                    }
                                }
                            }
                        }

                        else {
                            if (x[0] <= 0.07727272436022758) {
                                votes[4] += 1;
                            }

                            else {
                                votes[4] += 1;
                            }
                        }

                        // tree #15
                        if (x[3] <= 0.2060023993253708) {
                            if (x[1] <= 0.6793478429317474) {
                                if (x[3] <= 2.021351974690333e-05) {
                                    if (x[1] <= 0.4728260934352875) {
                                        if (x[2] <= 0.21462219953536987) {
                                            votes[3] += 1;
                                        }

                                        else {
                                            votes[0] += 1;
                                        }
                                    }

                                    else {
                                        if (x[0] <= 0.29545454680919647) {
                                            if (x[1] <= 0.5108638107776642) {
                                                if (x[2] <= 0.4171970337629318) {
                                                    if (x[2] <= 0.21459921449422836) {
                                                        votes[3] += 1;
                                                    }

                                                    else {
                                                        if (x[1] <= 0.4746432900428772) {
                                                            votes[2] += 1;
                                                        }

                                                        else {
                                                            votes[2] += 1;
                                                        }
                                                    }
                                                }

                                                else {
                                                    votes[0] += 1;
                                                }
                                            }

                                            else {
                                                if (x[2] <= 0.21251771599054337) {
                                                    votes[3] += 1;
                                                }

                                                else {
                                                    votes[2] += 1;
                                                }
                                            }
                                        }

                                        else {
                                            if (x[2] <= 0.36445581167936325) {
                                                votes[3] += 1;
                                            }

                                            else {
                                                if (x[2] <= 0.5411105155944824) {
                                                    votes[0] += 1;
                                                }

                                                else {
                                                    votes[0] += 1;
                                                }
                                            }
                                        }
                                    }
                                }

                                else {
                                    if (x[0] <= 0.22272727638483047) {
                                        if (x[0] <= 0.21204257011413574) {
                                            if (x[2] <= 0.25177086889743805) {
                                                votes[3] += 1;
                                            }

                                            else {
                                                votes[0] += 1;
                                            }
                                        }

                                        else {
                                            if (x[1] <= 0.4474637806415558) {
                                                if (x[2] <= 0.7219657301902771) {
                                                    votes[0] += 1;
                                                }

                                                else {
                                                    if (x[3] <= 0.0016453613643534482) {
                                                        votes[0] += 1;
                                                    }

                                                    else {
                                                        votes[0] += 1;
                                                    }
                                                }
                                            }

                                            else {
                                                if (x[1] <= 0.48731884360313416) {
                                                    if (x[1] <= 0.4692029058933258) {
                                                        if (x[2] <= 0.4158465042710304) {
                                                            if (x[2] <= 0.10482147336006165) {
                                                                votes[3] += 1;
                                                            }

                                                            else {
                                                                votes[3] += 1;
                                                            }
                                                        }

                                                        else {
                                                            votes[0] += 1;
                                                        }
                                                    }

                                                    else {
                                                        if (x[3] <= 0.011865586740896106) {
                                                            if (x[1] <= 0.4728260934352875) {
                                                                votes[3] += 1;
                                                            }

                                                            else {
                                                                votes[3] += 1;
                                                            }
                                                        }

                                                        else {
                                                            votes[0] += 1;
                                                        }
                                                    }
                                                }

                                                else {
